<?xml version="1.0"?>
<opencv_storage>
<cascade>
  <stageType>BOOST</stageType>
  <featureType>HAAR</featureType>
  <height>30</height>
  <width>30</width>
  <stageParams>
    <boostType>GAB</boostType>
    <minHitRate>9.9500000476837158e-01</minHitRate>
    <maxFalseAlarm>5.0000000000000000e-01</maxFalseAlarm>
    <weightTrimRate>9.4999999999999996e-01</weightTrimRate>
    <maxDepth>1</maxDepth>
    <maxWeakCount>100</maxWeakCount></stageParams>
  <featureParams>
    <maxCatCount>0</maxCatCount>
    <featSize>1</featSize>
    <mode>BASIC</mode></featureParams>
  <stageNum>11</stageNum>
  <stages>
    <!-- stage 0 -->
    <_>
      <maxWeakCount>2</maxWeakCount>
      <stageThreshold>-3.6788757890462875e-02</stageThreshold>
      <weakClassifiers>
        <_>
          <internalNodes>
            0 -1 49 3.4166917204856873e-02</internalNodes>
          <leafValues>
            -9.7641026973724365e-01 9.4877195358276367e-01</leafValues></_>
        <_>
          <internalNodes>
            0 -1 31 -1.9591325521469116e-01</internalNodes>
          <leafValues>
            9.3962150812149048e-01 -9.3751406669616699e-01</leafValues></_></weakClassifiers></_>
    <!-- stage 1 -->
    <_>
      <maxWeakCount>2</maxWeakCount>
      <stageThreshold>-1.2867221236228943e-01</stageThreshold>
      <weakClassifiers>
        <_>
          <internalNodes>
            0 -1 29 -2.4205881357192993e-01</internalNodes>
          <leafValues>
            8.3112919330596924e-01 -8.9195030927658081e-01</leafValues></_>
        <_>
          <internalNodes>
            0 -1 0 -1.1897704005241394e-01</internalNodes>
          <leafValues>
            7.6327806711196899e-01 -8.7081122398376465e-01</leafValues></_></weakClassifiers></_>
    <!-- stage 2 -->
    <_>
      <maxWeakCount>4</maxWeakCount>
      <stageThreshold>-1.6817129850387573e+00</stageThreshold>
      <weakClassifiers>
        <_>
          <internalNodes>
            0 -1 39 -1.1437438428401947e-01</internalNodes>
          <leafValues>
            8.2857143878936768e-01 -6.3218390941619873e-01</leafValues></_>
        <_>
          <internalNodes>
            0 -1 55 1.4615975320339203e-02</internalNodes>
          <leafValues>
            -8.5127109289169312e-01 5.9156459569931030e-01</leafValues></_>
        <_>
          <internalNodes>
            0 -1 12 8.8198453187942505e-02</internalNodes>
          <leafValues>
            -9.0902227163314819e-01 4.7369861602783203e-01</leafValues></_>
        <_>
          <internalNodes>
            0 -1 8 -8.8182941079139709e-02</internalNodes>
          <leafValues>
            4.9057072401046753e-01 -7.4999105930328369e-01</leafValues></_></weakClassifiers></_>
    <!-- stage 3 -->
    <_>
      <maxWeakCount>2</maxWeakCount>
      <stageThreshold>-2.6707741618156433e-01</stageThreshold>
      <weakClassifiers>
        <_>
          <internalNodes>
            0 -1 52 -4.3471410870552063e-02</internalNodes>
          <leafValues>
            6.0229331254959106e-01 -8.0484521389007568e-01</leafValues></_>
        <_>
          <internalNodes>
            0 -1 3 -2.7738884091377258e-02</internalNodes>
          <leafValues>
            5.3776782751083374e-01 -7.1583378314971924e-01</leafValues></_></weakClassifiers></_>
    <!-- stage 4 -->
    <_>
      <maxWeakCount>6</maxWeakCount>
      <stageThreshold>-9.2438781261444092e-01</stageThreshold>
      <weakClassifiers>
        <_>
          <internalNodes>
            0 -1 7 -3.1583392620086670e-01</internalNodes>
          <leafValues>
            6.8226677179336548e-01 -8.0952382087707520e-01</leafValues></_>
        <_>
          <internalNodes>
            0 -1 59 2.0098879933357239e-02</internalNodes>
          <leafValues>
            -5.7519215345382690e-01 5.5839180946350098e-01</leafValues></_>
        <_>
          <internalNodes>
            0 -1 38 1.4747272245585918e-02</internalNodes>
          <leafValues>
            -8.7831592559814453e-01 3.3751064538955688e-01</leafValues></_>
        <_>
          <internalNodes>
            0 -1 30 3.1071107834577560e-02</internalNodes>
          <leafValues>
            -3.4810882806777954e-01 8.4565812349319458e-01</leafValues></_>
        <_>
          <internalNodes>
            0 -1 33 5.9077814221382141e-03</internalNodes>
          <leafValues>
            -7.5874334573745728e-01 3.6824631690979004e-01</leafValues></_>
        <_>
          <internalNodes>
            0 -1 48 6.3167139887809753e-02</internalNodes>
          <leafValues>
            -9.3613249063491821e-01 1.8492266535758972e-01</leafValues></_></weakClassifiers></_>
    <!-- stage 5 -->
    <_>
      <maxWeakCount>6</maxWeakCount>
      <stageThreshold>-9.2765998840332031e-01</stageThreshold>
      <weakClassifiers>
        <_>
          <internalNodes>
            0 -1 22 -3.5042428970336914e-01</internalNodes>
          <leafValues>
            7.2597599029541016e-01 -5.3089886903762817e-01</leafValues></_>
        <_>
          <internalNodes>
            0 -1 5 -2.8094213455915451e-02</internalNodes>
          <leafValues>
            3.7171083688735962e-01 -9.2739266157150269e-01</leafValues></_>
        <_>
          <internalNodes>
            0 -1 26 -1.2324886396527290e-02</internalNodes>
          <leafValues>
            6.4695566892623901e-01 -4.5416572690010071e-01</leafValues></_>
        <_>
          <internalNodes>
            0 -1 14 8.0534793436527252e-02</internalNodes>
          <leafValues>
            -8.1870144605636597e-01 3.7700366973876953e-01</leafValues></_>
        <_>
          <internalNodes>
            0 -1 10 -2.9856041073799133e-02</internalNodes>
          <leafValues>
            3.0043351650238037e-01 -7.5190603733062744e-01</leafValues></_>
        <_>
          <internalNodes>
            0 -1 42 -1.0965801775455475e-02</internalNodes>
          <leafValues>
            2.6782664656639099e-01 -7.9376131296157837e-01</leafValues></_></weakClassifiers></_>
    <!-- stage 6 -->
    <_>
      <maxWeakCount>8</maxWeakCount>
      <stageThreshold>-8.4591168165206909e-01</stageThreshold>
      <weakClassifiers>
        <_>
          <internalNodes>
            0 -1 58 -4.4824939221143723e-02</internalNodes>
          <leafValues>
            6.8405252695083618e-01 -4.7915691137313843e-01</leafValues></_>
        <_>
          <internalNodes>
            0 -1 25 6.0300737619400024e-02</internalNodes>
          <leafValues>
            -8.6430567502975464e-01 3.3530652523040771e-01</leafValues></_>
        <_>
          <internalNodes>
            0 -1 2 -1.8400239944458008e-01</internalNodes>
          <leafValues>
            3.3948361873626709e-01 -7.3746842145919800e-01</leafValues></_>
        <_>
          <internalNodes>
            0 -1 23 3.2789610326290131e-02</internalNodes>
          <leafValues>
            -3.4968867897987366e-01 6.8534332513809204e-01</leafValues></_>
        <_>
          <internalNodes>
            0 -1 28 -1.7596054822206497e-02</internalNodes>
          <leafValues>
            8.5487705469131470e-01 -2.4278682470321655e-01</leafValues></_>
        <_>
          <internalNodes>
            0 -1 41 -1.3711260631680489e-02</internalNodes>
          <leafValues>
            5.8778953552246094e-01 -3.5832589864730835e-01</leafValues></_>
        <_>
          <internalNodes>
            0 -1 1 -2.5142261758446693e-02</internalNodes>
          <leafValues>
            3.7763056159019470e-01 -6.6786623001098633e-01</leafValues></_>
        <_>
          <internalNodes>
            0 -1 24 -1.1711198836565018e-02</internalNodes>
          <leafValues>
            7.5469207763671875e-01 -2.9066994786262512e-01</leafValues></_></weakClassifiers></_>
    <!-- stage 7 -->
    <_>
      <maxWeakCount>6</maxWeakCount>
      <stageThreshold>-1.2093472480773926e+00</stageThreshold>
      <weakClassifiers>
        <_>
          <internalNodes>
            0 -1 32 -6.6091910004615784e-02</internalNodes>
          <leafValues>
            8.0876070261001587e-01 -2.4385246634483337e-01</leafValues></_>
        <_>
          <internalNodes>
            0 -1 46 -2.2411608370020986e-05</internalNodes>
          <leafValues>
            3.3599415421485901e-01 -8.4938561916351318e-01</leafValues></_>
        <_>
          <internalNodes>
            0 -1 45 -2.7701669023372233e-04</internalNodes>
          <leafValues>
            -9.1096186637878418e-01 2.3208066821098328e-01</leafValues></_>
        <_>
          <internalNodes>
            0 -1 50 -3.9403587579727173e-03</internalNodes>
          <leafValues>
            2.2063161432743073e-01 -8.5214000940322876e-01</leafValues></_>
        <_>
          <internalNodes>
            0 -1 17 6.0228497022762895e-04</internalNodes>
          <leafValues>
            -8.4060955047607422e-01 2.0177640020847321e-01</leafValues></_>
        <_>
          <internalNodes>
            0 -1 13 1.0783316567540169e-02</internalNodes>
          <leafValues>
            -8.1293499469757080e-01 1.8560947477817535e-01</leafValues></_></weakClassifiers></_>
    <!-- stage 8 -->
    <_>
      <maxWeakCount>6</maxWeakCount>
      <stageThreshold>-5.1554709672927856e-01</stageThreshold>
      <weakClassifiers>
        <_>
          <internalNodes>
            0 -1 51 -1.0407774150371552e-01</internalNodes>
          <leafValues>
            6.5331155061721802e-01 -3.3899745345115662e-01</leafValues></_>
        <_>
          <internalNodes>
            0 -1 6 1.7698399024084210e-03</internalNodes>
          <leafValues>
            -8.8272231817245483e-01 2.8272676467895508e-01</leafValues></_>
        <_>
          <internalNodes>
            0 -1 34 3.2600007951259613e-02</internalNodes>
          <leafValues>
            2.1467505395412445e-01 -9.4365423917770386e-01</leafValues></_>
        <_>
          <internalNodes>
            0 -1 35 -2.5331159122288227e-05</internalNodes>
          <leafValues>
            1.5322883427143097e-01 -8.6821609735488892e-01</leafValues></_>
        <_>
          <internalNodes>
            0 -1 44 -2.1493574604392052e-03</internalNodes>
          <leafValues>
            1.7600223422050476e-01 -8.4875470399856567e-01</leafValues></_>
        <_>
          <internalNodes>
            0 -1 21 7.0484867319464684e-04</internalNodes>
          <leafValues>
            1.9471453130245209e-01 -8.2804965972900391e-01</leafValues></_></weakClassifiers></_>
    <!-- stage 9 -->
    <_>
      <maxWeakCount>9</maxWeakCount>
      <stageThreshold>-9.6952712535858154e-01</stageThreshold>
      <weakClassifiers>
        <_>
          <internalNodes>
            0 -1 56 -3.4195423126220703e-02</internalNodes>
          <leafValues>
            5.6348913908004761e-01 -3.5093614459037781e-01</leafValues></_>
        <_>
          <internalNodes>
            0 -1 43 -2.1564014605246484e-04</internalNodes>
          <leafValues>
            -8.3944422006607056e-01 2.5960248708724976e-01</leafValues></_>
        <_>
          <internalNodes>
            0 -1 40 -2.4743840185692534e-05</internalNodes>
          <leafValues>
            2.3514407873153687e-01 -8.2846909761428833e-01</leafValues></_>
        <_>
          <internalNodes>
            0 -1 19 -4.4560812413692474e-02</internalNodes>
          <leafValues>
            5.7652789354324341e-01 -3.4571963548660278e-01</leafValues></_>
        <_>
          <internalNodes>
            0 -1 53 4.5263055711984634e-02</internalNodes>
          <leafValues>
            -6.2190175056457520e-01 2.7136552333831787e-01</leafValues></_>
        <_>
          <internalNodes>
            0 -1 36 -3.9501257240772247e-02</internalNodes>
          <leafValues>
            2.9737097024917603e-01 -6.3750368356704712e-01</leafValues></_>
        <_>
          <internalNodes>
            0 -1 18 2.6126264128834009e-04</internalNodes>
          <leafValues>
            -5.9803444147109985e-01 2.5113278627395630e-01</leafValues></_>
        <_>
          <internalNodes>
            0 -1 20 4.3275458738207817e-03</internalNodes>
          <leafValues>
            -6.5286344289779663e-01 2.4303874373435974e-01</leafValues></_>
        <_>
          <internalNodes>
            0 -1 11 3.7999253720045090e-02</internalNodes>
          <leafValues>
            1.6796192526817322e-01 -8.8397365808486938e-01</leafValues></_></weakClassifiers></_>
    <!-- stage 10 -->
    <_>
      <maxWeakCount>9</maxWeakCount>
      <stageThreshold>-1.3537431955337524e+00</stageThreshold>
      <weakClassifiers>
        <_>
          <internalNodes>
            0 -1 57 -3.1755432486534119e-02</internalNodes>
          <leafValues>
            6.6084557771682739e-01 -2.4314025044441223e-01</leafValues></_>
        <_>
          <internalNodes>
            0 -1 9 -3.2930426299571991e-02</internalNodes>
          <leafValues>
            3.2142451405525208e-01 -6.4560705423355103e-01</leafValues></_>
        <_>
          <internalNodes>
            0 -1 4 6.4363330602645874e-03</internalNodes>
          <leafValues>
            -8.3193302154541016e-01 2.1406020224094391e-01</leafValues></_>
        <_>
          <internalNodes>
            0 -1 47 -1.3177031651139259e-03</internalNodes>
          <leafValues>
            2.0686209201812744e-01 -6.8114513158798218e-01</leafValues></_>
        <_>
          <internalNodes>
            0 -1 15 2.8215507045388222e-03</internalNodes>
          <leafValues>
            -7.2696352005004883e-01 2.4081707000732422e-01</leafValues></_>
        <_>
          <internalNodes>
            0 -1 27 -1.4308866113424301e-02</internalNodes>
          <leafValues>
            5.3124082088470459e-01 -3.1172376871109009e-01</leafValues></_>
        <_>
          <internalNodes>
            0 -1 54 1.8070295453071594e-02</internalNodes>
          <leafValues>
            -8.6417120695114136e-01 1.7669069766998291e-01</leafValues></_>
        <_>
          <internalNodes>
            0 -1 37 -1.6131728887557983e-02</internalNodes>
          <leafValues>
            7.0796787738800049e-01 -3.0957505106925964e-01</leafValues></_>
        <_>
          <internalNodes>
            0 -1 16 -2.5526298210024834e-02</internalNodes>
          <leafValues>
            -9.1139900684356689e-01 2.3433034121990204e-01</leafValues></_></weakClassifiers></_></stages>
  <features>
    <_>
      <rects>
        <_>
          0 17 30 5 -1.</_>
        <_>
          10 17 10 5 3.</_></rects>
      <tilted>0</tilted></_>
    <_>
      <rects>
        <_>
          0 18 24 2 -1.</_>
        <_>
          12 18 12 2 2.</_></rects>
      <tilted>0</tilted></_>
    <_>
      <rects>
        <_>
          1 12 23 18 -1.</_>
        <_>
          1 18 23 6 3.</_></rects>
      <tilted>0</tilted></_>
    <_>
      <rects>
        <_>
          1 18 14 3 -1.</_>
        <_>
          8 18 7 3 2.</_></rects>
      <tilted>0</tilted></_>
    <_>
      <rects>
        <_>
          1 20 9 10 -1.</_>
        <_>
          1 25 9 5 2.</_></rects>
      <tilted>0</tilted></_>
    <_>
      <rects>
        <_>
          2 16 18 14 -1.</_>
        <_>
          11 16 9 14 2.</_></rects>
      <tilted>0</tilted></_>
    <_>
      <rects>
        <_>
          2 21 28 2 -1.</_>
        <_>
          16 21 14 2 2.</_></rects>
      <tilted>0</tilted></_>
    <_>
      <rects>
        <_>
          3 9 20 21 -1.</_>
        <_>
          3 16 20 7 3.</_></rects>
      <tilted>0</tilted></_>
    <_>
      <rects>
        <_>
          3 12 21 16 -1.</_>
        <_>
          10 12 7 16 3.</_></rects>
      <tilted>0</tilted></_>
    <_>
      <rects>
        <_>
          3 18 18 11 -1.</_>
        <_>
          9 18 6 11 3.</_></rects>
      <tilted>0</tilted></_>
    <_>
      <rects>
        <_>
          4 12 13 10 -1.</_>
        <_>
          4 17 13 5 2.</_></rects>
      <tilted>0</tilted></_>
    <_>
      <rects>
        <_>
          5 20 18 10 -1.</_>
        <_>
          14 20 9 10 2.</_></rects>
      <tilted>0</tilted></_>
    <_>
      <rects>
        <_>
          6 18 14 12 -1.</_>
        <_>
          6 24 14 6 2.</_></rects>
      <tilted>0</tilted></_>
    <_>
      <rects>
        <_>
          6 20 20 10 -1.</_>
        <_>
          16 20 10 10 2.</_></rects>
      <tilted>0</tilted></_>
    <_>
      <rects>
        <_>
          8 5 22 17 -1.</_>
        <_>
          19 5 11 17 2.</_></rects>
      <tilted>0</tilted></_>
    <_>
      <rects>
        <_>
          8 13 22 1 -1.</_>
        <_>
          19 13 11 1 2.</_></rects>
      <tilted>0</tilted></_>
    <_>
      <rects>
        <_>
          8 21 12 9 -1.</_>
        <_>
          12 21 4 9 3.</_></rects>
      <tilted>0</tilted></_>
    <_>
      <rects>
        <_>
          9 20 3 4 -1.</_>
        <_>
          9 22 3 2 2.</_></rects>
      <tilted>0</tilted></_>
    <_>
      <rects>
        <_>
          9 28 8 2 -1.</_>
        <_>
          13 28 4 2 2.</_></rects>
      <tilted>0</tilted></_>
    <_>
      <rects>
        <_>
          10 2 12 9 -1.</_>
        <_>
          10 5 12 3 3.</_></rects>
      <tilted>0</tilted></_>
    <_>
      <rects>
        <_>
          10 15 14 10 -1.</_>
        <_>
          10 15 7 5 2.</_>
        <_>
          17 20 7 5 2.</_></rects>
      <tilted>0</tilted></_>
    <_>
      <rects>
        <_>
          10 20 6 7 -1.</_>
        <_>
          12 20 2 7 3.</_></rects>
      <tilted>0</tilted></_>
    <_>
      <rects>
        <_>
          11 6 12 24 -1.</_>
        <_>
          11 14 12 8 3.</_></rects>
      <tilted>0</tilted></_>
    <_>
      <rects>
        <_>
          11 7 13 6 -1.</_>
        <_>
          11 9 13 2 3.</_></rects>
      <tilted>0</tilted></_>
    <_>
      <rects>
        <_>
          11 8 11 6 -1.</_>
        <_>
          11 10 11 2 3.</_></rects>
      <tilted>0</tilted></_>
    <_>
      <rects>
        <_>
          11 12 16 12 -1.</_>
        <_>
          19 12 8 12 2.</_></rects>
      <tilted>0</tilted></_>
    <_>
      <rects>
        <_>
          12 4 11 6 -1.</_>
        <_>
          12 6 11 2 3.</_></rects>
      <tilted>0</tilted></_>
    <_>
      <rects>
        <_>
          12 5 11 6 -1.</_>
        <_>
          12 7 11 2 3.</_></rects>
      <tilted>0</tilted></_>
    <_>
      <rects>
        <_>
          12 6 10 6 -1.</_>
        <_>
          12 8 10 2 3.</_></rects>
      <tilted>0</tilted></_>
    <_>
      <rects>
        <_>
          12 6 11 24 -1.</_>
        <_>
          12 14 11 8 3.</_></rects>
      <tilted>0</tilted></_>
    <_>
      <rects>
        <_>
          12 7 15 6 -1.</_>
        <_>
          12 9 15 2 3.</_></rects>
      <tilted>0</tilted></_>
    <_>
      <rects>
        <_>
          12 9 11 21 -1.</_>
        <_>
          12 16 11 7 3.</_></rects>
      <tilted>0</tilted></_>
    <_>
      <rects>
        <_>
          12 10 15 6 -1.</_>
        <_>
          12 13 15 3 2.</_></rects>
      <tilted>0</tilted></_>
    <_>
      <rects>
        <_>
          12 11 14 5 -1.</_>
        <_>
          19 11 7 5 2.</_></rects>
      <tilted>0</tilted></_>
    <_>
      <rects>
        <_>
          12 13 12 12 -1.</_>
        <_>
          12 13 6 6 2.</_>
        <_>
          18 19 6 6 2.</_></rects>
      <tilted>0</tilted></_>
    <_>
      <rects>
        <_>
          12 20 6 5 -1.</_>
        <_>
          14 20 2 5 3.</_></rects>
      <tilted>0</tilted></_>
    <_>
      <rects>
        <_>
          13 5 2 24 -1.</_>
        <_>
          13 13 2 8 3.</_></rects>
      <tilted>0</tilted></_>
    <_>
      <rects>
        <_>
          13 8 9 6 -1.</_>
        <_>
          13 10 9 2 3.</_></rects>
      <tilted>0</tilted></_>
    <_>
      <rects>
        <_>
          13 20 12 5 -1.</_>
        <_>
          19 20 6 5 2.</_></rects>
      <tilted>0</tilted></_>
    <_>
      <rects>
        <_>
          14 7 9 14 -1.</_>
        <_>
          14 14 9 7 2.</_></rects>
      <tilted>0</tilted></_>
    <_>
      <rects>
        <_>
          14 20 6 4 -1.</_>
        <_>
          16 20 2 4 3.</_></rects>
      <tilted>0</tilted></_>
    <_>
      <rects>
        <_>
          15 1 5 9 -1.</_>
        <_>
          15 4 5 3 3.</_></rects>
      <tilted>0</tilted></_>
    <_>
      <rects>
        <_>
          15 18 12 3 -1.</_>
        <_>
          19 18 4 3 3.</_></rects>
      <tilted>0</tilted></_>
    <_>
      <rects>
        <_>
          15 19 4 2 -1.</_>
        <_>
          17 19 2 2 2.</_></rects>
      <tilted>0</tilted></_>
    <_>
      <rects>
        <_>
          15 19 9 4 -1.</_>
        <_>
          18 19 3 4 3.</_></rects>
      <tilted>0</tilted></_>
    <_>
      <rects>
        <_>
          15 20 4 2 -1.</_>
        <_>
          17 20 2 2 2.</_></rects>
      <tilted>0</tilted></_>
    <_>
      <rects>
        <_>
          15 20 6 3 -1.</_>
        <_>
          17 20 2 3 3.</_></rects>
      <tilted>0</tilted></_>
    <_>
      <rects>
        <_>
          16 15 2 6 -1.</_>
        <_>
          16 18 2 3 2.</_></rects>
      <tilted>0</tilted></_>
    <_>
      <rects>
        <_>
          16 16 7 14 -1.</_>
        <_>
          16 23 7 7 2.</_></rects>
      <tilted>0</tilted></_>
    <_>
      <rects>
        <_>
          16 18 14 4 -1.</_>
        <_>
          23 18 7 4 2.</_></rects>
      <tilted>0</tilted></_>
    <_>
      <rects>
        <_>
          17 18 9 4 -1.</_>
        <_>
          20 18 3 4 3.</_></rects>
      <tilted>0</tilted></_>
    <_>
      <rects>
        <_>
          18 6 6 16 -1.</_>
        <_>
          18 14 6 8 2.</_></rects>
      <tilted>0</tilted></_>
    <_>
      <rects>
        <_>
          18 16 12 14 -1.</_>
        <_>
          18 16 6 7 2.</_>
        <_>
          24 23 6 7 2.</_></rects>
      <tilted>0</tilted></_>
    <_>
      <rects>
        <_>
          18 17 12 4 -1.</_>
        <_>
          24 17 6 4 2.</_></rects>
      <tilted>0</tilted></_>
    <_>
      <rects>
        <_>
          19 15 10 12 -1.</_>
        <_>
          19 21 10 6 2.</_></rects>
      <tilted>0</tilted></_>
    <_>
      <rects>
        <_>
          20 18 8 3 -1.</_>
        <_>
          24 18 4 3 2.</_></rects>
      <tilted>0</tilted></_>
    <_>
      <rects>
        <_>
          21 0 2 30 -1.</_>
        <_>
          21 15 2 15 2.</_></rects>
      <tilted>0</tilted></_>
    <_>
      <rects>
        <_>
          21 9 2 12 -1.</_>
        <_>
          21 15 2 6 2.</_></rects>
      <tilted>0</tilted></_>
    <_>
      <rects>
        <_>
          21 9 2 18 -1.</_>
        <_>
          21 15 2 6 3.</_></rects>
      <tilted>0</tilted></_>
    <_>
      <rects>
        <_>
          21 9 6 12 -1.</_>
        <_>
          21 9 3 6 2.</_>
        <_>
          24 15 3 6 2.</_></rects>
      <tilted>0</tilted></_></features></cascade>
</opencv_storage>
