<?xml version="1.0"?>
<opencv_storage>
<stage6>
  <maxWeakCount>8</maxWeakCount>
  <stageThreshold>-8.4591168165206909e-01</stageThreshold>
  <weakClassifiers>
    <_>
      <internalNodes>
        0 -1 362600 -4.4824939221143723e-02</internalNodes>
      <leafValues>
        6.8405252695083618e-01 -4.7915691137313843e-01</leafValues></_>
    <_>
      <internalNodes>
        0 -1 246485 6.0300737619400024e-02</internalNodes>
      <leafValues>
        -8.6430567502975464e-01 3.3530652523040771e-01</leafValues></_>
    <_>
      <internalNodes>
        0 -1 42661 -1.8400239944458008e-01</internalNodes>
      <leafValues>
        3.3948361873626709e-01 -7.3746842145919800e-01</leafValues></_>
    <_>
      <internalNodes>
        0 -1 243081 3.2789610326290131e-02</internalNodes>
      <leafValues>
        -3.4968867897987366e-01 6.8534332513809204e-01</leafValues></_>
    <_>
      <internalNodes>
        0 -1 258117 -1.7596054822206497e-02</internalNodes>
      <leafValues>
        8.5487705469131470e-01 -2.4278682470321655e-01</leafValues></_>
    <_>
      <internalNodes>
        0 -1 296643 -1.3711260631680489e-02</internalNodes>
      <leafValues>
        5.8778953552246094e-01 -3.5832589864730835e-01</leafValues></_>
    <_>
      <internalNodes>
        0 -1 22302 -2.5142261758446693e-02</internalNodes>
      <leafValues>
        3.7763056159019470e-01 -6.6786623001098633e-01</leafValues></_>
    <_>
      <internalNodes>
        0 -1 243816 -1.1711198836565018e-02</internalNodes>
      <leafValues>
        7.5469207763671875e-01 -2.9066994786262512e-01</leafValues></_></weakClassifiers></stage6>
</opencv_storage>
